FANN_FLO_2.1
num_layers=7
learning_rate=0.700000
connection_rate=1.000000
network_type=0
learning_momentum=0.000000
training_algorithm=2
train_error_function=1
train_stop_function=0
cascade_output_change_fraction=0.010000
quickprop_decay=-0.000100
quickprop_mu=1.750000
rprop_increase_factor=1.200000
rprop_decrease_factor=0.500000
rprop_delta_min=0.000000
rprop_delta_max=50.000000
rprop_delta_zero=0.100000
cascade_output_stagnation_epochs=12
cascade_candidate_change_fraction=0.010000
cascade_candidate_stagnation_epochs=12
cascade_max_out_epochs=150
cascade_min_out_epochs=50
cascade_max_cand_epochs=150
cascade_min_cand_epochs=50
cascade_num_candidate_groups=2
bit_fail_limit=3.49999999999999980000e-001
cascade_candidate_limit=1.00000000000000000000e+003
cascade_weight_multiplier=4.00000000000000020000e-001
cascade_activation_functions_count=10
cascade_activation_functions=3 5 7 8 10 11 14 15 16 17 
cascade_activation_steepnesses_count=4
cascade_activation_steepnesses=2.50000000000000000000e-001 5.00000000000000000000e-001 7.50000000000000000000e-001 1.00000000000000000000e+000 
layer_sizes=4 3 9 5 4 5 2 
scale_included=0
neurons (num_inputs, activation_function, activation_steepness)=(0, 0, 0.00000000000000000000e+000) (0, 0, 0.00000000000000000000e+000) (0, 0, 0.00000000000000000000e+000) (0, 0, 0.00000000000000000000e+000) (4, 4, 5.00000000000000000000e-001) (4, 4, 5.00000000000000000000e-001) (0, 0, 0.00000000000000000000e+000) (3, 4, 5.00000000000000000000e-001) (3, 4, 5.00000000000000000000e-001) (3, 4, 5.00000000000000000000e-001) (3, 4, 5.00000000000000000000e-001) (3, 4, 5.00000000000000000000e-001) (3, 4, 5.00000000000000000000e-001) (3, 4, 5.00000000000000000000e-001) (3, 4, 5.00000000000000000000e-001) (0, 0, 0.00000000000000000000e+000) (9, 4, 5.00000000000000000000e-001) (9, 4, 5.00000000000000000000e-001) (9, 4, 5.00000000000000000000e-001) (9, 4, 5.00000000000000000000e-001) (0, 0, 0.00000000000000000000e+000) (5, 4, 5.00000000000000000000e-001) (5, 4, 5.00000000000000000000e-001) (5, 4, 5.00000000000000000000e-001) (0, 0, 0.00000000000000000000e+000) (4, 4, 5.00000000000000000000e-001) (4, 4, 5.00000000000000000000e-001) (4, 4, 5.00000000000000000000e-001) (4, 4, 5.00000000000000000000e-001) (0, 0, 0.00000000000000000000e+000) (5, 4, 5.00000000000000000000e-001) (0, 0, 0.00000000000000000000e+000) 
connections (connected_to_neuron, weight)=(0, -1.50000000000000000000e+003) (1, -1.50000000000000000000e+003) (2, -1.50000000000000000000e+003) (3, 1.17511391087428360000e-001) (0, -1.50000000000000000000e+003) (1, -1.50000000000000000000e+003) (2, -1.50000000000000000000e+003) (3, 9.49992520925850310000e+000) (4, 1.50000000000000000000e+003) (5, 1.50000000000000000000e+003) (6, -3.26199559916306500000e-001) (4, 1.50000000000000000000e+003) (5, 1.50000000000000000000e+003) (6, -2.33920505806873960000e-001) (4, 1.50000000000000000000e+003) (5, 1.50000000000000000000e+003) (6, -4.75742410772235670000e-001) (4, 1.50000000000000000000e+003) (5, 1.50000000000000000000e+003) (6, -4.48960183810649390000e-001) (4, 1.50000000000000000000e+003) (5, 1.50000000000000000000e+003) (6, -1.07115210507079440000e-001) (4, 1.50000000000000000000e+003) (5, 1.50000000000000000000e+003) (6, -4.12998269212275000000e-001) (4, 1.50000000000000000000e+003) (5, 1.50000000000000000000e+003) (6, -2.75491551348198300000e-001) (4, 1.50000000000000000000e+003) (5, 1.50000000000000000000e+003) (6, -2.54983738542608140000e-001) (7, 3.20969641919686910000e-001) (8, 2.50664863933089180000e-001) (9, 4.48095378453258970000e-001) (10, 4.52764567975960320000e-001) (11, 3.40417062536126140000e-001) (12, 3.24242485047274650000e-001) (13, 1.78515102319374200000e-001) (14, 2.56768277313569600000e-001) (15, -1.74247971416839550000e-002) (7, 1.71484115271784730000e-001) (8, 3.14892320533740890000e-001) (9, 7.79643312116414130000e-001) (10, 7.27195801569260340000e-001) (11, 3.31274156715349270000e-001) (12, 7.31468262570424970000e-001) (13, 2.66741685050615460000e-001) (14, 1.69555404305544670000e-001) (15, -3.14342523659237800000e-002) (7, 3.98530274635335410000e-001) (8, 2.85642913227590780000e-001) (9, 4.17009820413990650000e-001) (10, 3.00945365559495470000e-001) (11, 2.28210073695754470000e-001) (12, 4.22954644721325430000e-001) (13, 3.44346527383592780000e-001) (14, 2.90122893763097690000e-001) (15, -4.22300027163382000000e-001) (7, 3.05566148519770100000e-001) (8, 2.07519272058750400000e-001) (9, 7.38456788065187110000e-001) (10, 7.76817384339929530000e-001) (11, 2.95806626889966890000e-001) (12, 8.22831789322472580000e-001) (13, 2.62206772873665010000e-001) (14, 3.01299791034321420000e-001) (15, -1.61329273832761690000e-001) (16, 5.20060919984729250000e-001) (17, 2.82104945772731430000e-001) (18, 9.72536943551261750000e-001) (19, 3.38880686079008010000e-001) (20, 2.57623879077232940000e-001) (16, 2.49371855652560290000e-001) (17, -4.14037736432641600000e-003) (18, 3.44617218399959120000e-001) (19, 1.60123832339119710000e-002) (20, -8.92916466680091640000e-002) (16, 6.16833868476854730000e-001) (17, 2.54433969371587350000e-001) (18, 1.18533242019926810000e+000) (19, 4.01954417487629830000e-001) (20, 1.57263770159868530000e-001) (21, -6.27694648083219900000e-002) (22, -2.01015003696629370000e-002) (23, 6.12943663305409380000e-002) (24, -1.19453424524674410000e-002) (21, 3.57786476304834460000e-001) (22, 2.45616392326787310000e-001) (23, 3.56993019261761020000e-001) (24, 3.51457458357074260000e-001) (21, -6.41000312344008480000e-002) (22, 4.83372213532783160000e-002) (23, -8.03316123423502420000e-002) (24, 5.07865920760611840000e-002) (21, 3.69346535070842750000e-001) (22, 2.71830992326797470000e-001) (23, 3.15202247154655000000e-001) (24, 3.07707457705148460000e-001) (25, 2.97971066917525780000e-001) (26, 3.89467629747488050000e-001) (27, 2.29020933095120700000e-001) (28, 4.10680759725757070000e-001) (29, 2.45334347383170090000e-001) 
