FANN_FLO_2.1
num_layers=7
learning_rate=0.700000
connection_rate=1.000000
network_type=0
learning_momentum=0.000000
training_algorithm=2
train_error_function=1
train_stop_function=0
cascade_output_change_fraction=0.010000
quickprop_decay=-0.000100
quickprop_mu=1.750000
rprop_increase_factor=1.200000
rprop_decrease_factor=0.500000
rprop_delta_min=0.000000
rprop_delta_max=50.000000
rprop_delta_zero=0.100000
cascade_output_stagnation_epochs=12
cascade_candidate_change_fraction=0.010000
cascade_candidate_stagnation_epochs=12
cascade_max_out_epochs=150
cascade_min_out_epochs=50
cascade_max_cand_epochs=150
cascade_min_cand_epochs=50
cascade_num_candidate_groups=2
bit_fail_limit=3.49999999999999980000e-001
cascade_candidate_limit=1.00000000000000000000e+003
cascade_weight_multiplier=4.00000000000000020000e-001
cascade_activation_functions_count=10
cascade_activation_functions=3 5 7 8 10 11 14 15 16 17 
cascade_activation_steepnesses_count=4
cascade_activation_steepnesses=2.50000000000000000000e-001 5.00000000000000000000e-001 7.50000000000000000000e-001 1.00000000000000000000e+000 
layer_sizes=4 3 9 5 4 5 2 
scale_included=0
neurons (num_inputs, activation_function, activation_steepness)=(0, 0, 0.00000000000000000000e+000) (0, 0, 0.00000000000000000000e+000) (0, 0, 0.00000000000000000000e+000) (0, 0, 0.00000000000000000000e+000) (4, 4, 5.00000000000000000000e-001) (4, 4, 5.00000000000000000000e-001) (0, 0, 0.00000000000000000000e+000) (3, 4, 5.00000000000000000000e-001) (3, 4, 5.00000000000000000000e-001) (3, 4, 5.00000000000000000000e-001) (3, 4, 5.00000000000000000000e-001) (3, 4, 5.00000000000000000000e-001) (3, 4, 5.00000000000000000000e-001) (3, 4, 5.00000000000000000000e-001) (3, 4, 5.00000000000000000000e-001) (0, 0, 0.00000000000000000000e+000) (9, 4, 5.00000000000000000000e-001) (9, 4, 5.00000000000000000000e-001) (9, 4, 5.00000000000000000000e-001) (9, 4, 5.00000000000000000000e-001) (0, 0, 0.00000000000000000000e+000) (5, 4, 5.00000000000000000000e-001) (5, 4, 5.00000000000000000000e-001) (5, 4, 5.00000000000000000000e-001) (0, 0, 0.00000000000000000000e+000) (4, 4, 5.00000000000000000000e-001) (4, 4, 5.00000000000000000000e-001) (4, 4, 5.00000000000000000000e-001) (4, 4, 5.00000000000000000000e-001) (0, 0, 0.00000000000000000000e+000) (5, 4, 5.00000000000000000000e-001) (0, 0, 0.00000000000000000000e+000) 
connections (connected_to_neuron, weight)=(0, 1.20523647426253420000e+002) (1, 9.45606215937544460000e-001) (2, 4.64782308173023020000e-001) (3, -1.61463834120348440000e+001) (0, 1.20586580776800570000e+002) (1, -6.26401269728611880000e-001) (2, -1.98906143909195810000e+000) (3, -1.50009480035206980000e+001) (4, -2.27766229440472370000e+001) (5, -5.36141615202393920000e+001) (6, -2.22491531580067060000e+001) (4, -5.42216344873209480000e+001) (5, -1.28043768261240300000e+002) (6, 8.20543232649435100000e-002) (4, -1.27888492577467660000e+002) (5, -1.28465504018943680000e+002) (6, -4.73770227116538860000e+001) (4, 5.39022225378040360000e+001) (5, 5.44520372935071960000e+001) (6, -5.22172569250385910000e-001) (4, -2.31317294746626450000e+001) (5, -5.40318386577953550000e+001) (6, -2.12827301783847210000e+001) (4, -5.38063386767886410000e+001) (5, -1.28168864258347920000e+002) (6, 2.37091476654680870000e+000) (4, -2.31010654117057110000e+001) (5, -5.40157314798209640000e+001) (6, -2.13516022497234950000e+001) (4, -5.43426472324145990000e+001) (5, -5.43186360015880540000e+001) (6, 1.26680169879915990000e+000) (7, 2.21124148088393970000e+001) (8, 2.21535311127366690000e+001) (9, 2.21579983009485130000e+001) (10, -1.70883405956931170000e+000) (11, 5.32159064746789600000e+001) (12, 2.21487642669625120000e+001) (13, 5.31997382615474090000e+001) (14, 2.22136013291208130000e+001) (15, -6.51581403924796580000e-001) (7, 9.50302051609596890000e+000) (8, 2.22224031840754430000e+001) (9, 2.22000332136842570000e+001) (10, -1.58845441910364030000e+000) (11, 5.32378669242249460000e+001) (12, 2.22659517687087420000e+001) (13, 5.32020392869723220000e+001) (14, 2.21360256443710950000e+001) (15, -6.79596541061004760000e-001) (7, 4.24688400430025230000e+000) (8, 9.35631495807370510000e+000) (9, 2.25030031984387300000e+001) (10, -1.43015606736431770000e+000) (11, 2.29618467546616960000e+001) (12, 9.39142848398756240000e+000) (13, 2.30221372829038450000e+001) (14, 9.50528346615288380000e+000) (15, -1.45018780594406380000e+000) (7, 2.19988161743341450000e+001) (8, 2.21572908784176940000e+001) (9, 2.22492946890276850000e+001) (10, -1.66499860969736260000e+000) (11, 5.31547614542365780000e+001) (12, 2.21505403900358540000e+001) (13, 5.31512092080898950000e+001) (14, 2.21533413184572440000e+001) (15, -7.46906112376495400000e-001) (16, 1.96020052983157460000e+000) (17, 1.10926109559688310000e+000) (18, 1.75744625215132980000e-001) (19, 1.01403323403202770000e+000) (20, -1.27290721922459490000e+000) (16, 1.00139895650001230000e+000) (17, 9.36085234823637040000e-001) (18, 1.23429705522771550000e+000) (19, 9.70893584951696980000e-001) (20, -1.25949169168093800000e+000) (16, 6.98744628932387980000e-001) (17, 5.76674314613398460000e-001) (18, 9.60529508626137730000e-001) (19, 1.00006303524437050000e+000) (20, -4.09088460079869360000e-002) (21, 1.11169408406098770000e+000) (22, 1.00904515675014950000e+000) (23, 3.34923988947368410000e-001) (24, 1.37642274071013760000e-001) (21, 2.37533642807546960000e-001) (22, 1.57028270514173450000e-001) (23, 1.09899420930948070000e-001) (24, -1.11936169104690740000e-001) (21, 2.81033399315118840000e-001) (22, 2.63247754518842080000e-001) (23, 6.89509339926430850000e-002) (24, 1.40892233982339630000e-002) (21, 5.61857849377801370000e-001) (22, 1.00100682655224400000e+000) (23, 5.53859685564482510000e-001) (24, 6.86224282536448530000e-003) (25, 3.87268056239753360000e-001) (26, 1.88179014528671080000e-001) (27, 3.13929141415588310000e-001) (28, 4.11652300433871630000e-001) (29, 1.95947462516712630000e-001) 
