FANN_FLO_2.1
num_layers=7
learning_rate=0.700000
connection_rate=1.000000
network_type=0
learning_momentum=0.000000
training_algorithm=2
train_error_function=1
train_stop_function=0
cascade_output_change_fraction=0.010000
quickprop_decay=-0.000100
quickprop_mu=1.750000
rprop_increase_factor=1.200000
rprop_decrease_factor=0.500000
rprop_delta_min=0.000000
rprop_delta_max=50.000000
rprop_delta_zero=0.100000
cascade_output_stagnation_epochs=12
cascade_candidate_change_fraction=0.010000
cascade_candidate_stagnation_epochs=12
cascade_max_out_epochs=150
cascade_min_out_epochs=50
cascade_max_cand_epochs=150
cascade_min_cand_epochs=50
cascade_num_candidate_groups=2
bit_fail_limit=3.49999999999999980000e-001
cascade_candidate_limit=1.00000000000000000000e+003
cascade_weight_multiplier=4.00000000000000020000e-001
cascade_activation_functions_count=10
cascade_activation_functions=3 5 7 8 10 11 14 15 16 17 
cascade_activation_steepnesses_count=4
cascade_activation_steepnesses=2.50000000000000000000e-001 5.00000000000000000000e-001 7.50000000000000000000e-001 1.00000000000000000000e+000 
layer_sizes=4 3 9 5 4 5 2 
scale_included=0
neurons (num_inputs, activation_function, activation_steepness)=(0, 0, 0.00000000000000000000e+000) (0, 0, 0.00000000000000000000e+000) (0, 0, 0.00000000000000000000e+000) (0, 0, 0.00000000000000000000e+000) (4, 4, 5.00000000000000000000e-001) (4, 4, 5.00000000000000000000e-001) (0, 0, 0.00000000000000000000e+000) (3, 4, 5.00000000000000000000e-001) (3, 4, 5.00000000000000000000e-001) (3, 4, 5.00000000000000000000e-001) (3, 4, 5.00000000000000000000e-001) (3, 4, 5.00000000000000000000e-001) (3, 4, 5.00000000000000000000e-001) (3, 4, 5.00000000000000000000e-001) (3, 4, 5.00000000000000000000e-001) (0, 0, 0.00000000000000000000e+000) (9, 4, 5.00000000000000000000e-001) (9, 4, 5.00000000000000000000e-001) (9, 4, 5.00000000000000000000e-001) (9, 4, 5.00000000000000000000e-001) (0, 0, 0.00000000000000000000e+000) (5, 4, 5.00000000000000000000e-001) (5, 4, 5.00000000000000000000e-001) (5, 4, 5.00000000000000000000e-001) (0, 0, 0.00000000000000000000e+000) (4, 4, 5.00000000000000000000e-001) (4, 4, 5.00000000000000000000e-001) (4, 4, 5.00000000000000000000e-001) (4, 4, 5.00000000000000000000e-001) (0, 0, 0.00000000000000000000e+000) (5, 4, 5.00000000000000000000e-001) (0, 0, 0.00000000000000000000e+000) 
connections (connected_to_neuron, weight)=(0, 9.50993699893262350000e-002) (1, 2.64287146691787530000e-002) (2, -2.24238251212808060000e-002) (3, 4.83891642151649470000e-002) (0, 3.24204607549378410000e-001) (1, 3.09006853416664230000e-001) (2, 2.66825456303737440000e-001) (3, 1.89774673905591360000e-001) (4, -3.56441155404466640000e-001) (5, -5.20509761364904340000e-001) (6, -5.13173335474333080000e-001) (4, -4.99037593076194160000e-001) (5, -4.94520991446391560000e-001) (6, -4.14973871120422060000e-001) (4, 1.02766129117698240000e-002) (5, 1.16642581293621250000e-001) (6, 1.39427005461260610000e-001) (4, 1.90232670280824000000e-001) (5, 1.45878421573019200000e-001) (6, 5.81464866719615180000e-002) (4, 1.73490726671974600000e-001) (5, 2.01768314983968490000e-001) (6, 1.01762209978136440000e-001) (4, -5.20662349257803080000e-001) (5, -3.85457269118090420000e-001) (6, -5.06374018966765370000e-001) (4, -4.72798579013327390000e-001) (5, -4.60744135474327190000e-001) (6, -5.11116450678058110000e-001) (4, -3.89735833634971000000e-001) (5, -3.47536125974896360000e-001) (6, -3.44411125928330230000e-001) (7, 5.56501487441381850000e-002) (8, 3.45197773355211190000e-002) (9, 1.48216068092227840000e-001) (10, 1.03379641642863050000e-001) (11, 1.07609378034016030000e-001) (12, 1.10252200339022150000e-001) (13, 8.28046901643973850000e-002) (14, 4.43220235753359680000e-002) (15, 1.60435306555558680000e-001) (7, -4.44572841593219510000e-002) (8, -1.56444590515562840000e-001) (9, -1.31475107721613550000e-001) (10, -1.80559581109279190000e-001) (11, -8.93974703758578930000e-002) (12, -1.58745615940475790000e-001) (13, -1.70629161039429410000e-001) (14, -1.52660410771674170000e-001) (15, -2.21166271167491020000e-001) (7, 1.71171390699913800000e-001) (8, 6.45917992680041660000e-002) (9, 6.03132347511235800000e-002) (10, 1.63493167929249370000e-001) (11, 1.28117190839606240000e-001) (12, 7.60847193611370180000e-002) (13, 1.36152360083941840000e-002) (14, 3.59418964973373460000e-002) (15, 2.65974139362187070000e-002) (7, 3.22492946661903920000e-001) (8, 2.60835230899382380000e-001) (9, 3.34852565986701600000e-001) (10, 4.00276150945963970000e-001) (11, 3.77803006079838020000e-001) (12, 3.15132106708468860000e-001) (13, 4.19508328966920750000e-001) (14, 2.79035914764343700000e-001) (15, 3.17164577441880040000e-001) (16, -5.24141353215894280000e-001) (17, -4.44264643041263620000e-001) (18, -4.42976801225198280000e-001) (19, -4.61482660875957070000e-001) (20, -3.86360589444050940000e-001) (16, 4.72089865089800680000e-002) (17, 1.96333025043203620000e-002) (18, 1.42674075822145720000e-001) (19, 8.29694850887280210000e-002) (20, 1.42741214495021170000e-001) (16, 1.94791996520638250000e-001) (17, 2.45161150770799380000e-002) (18, 3.77546406649743390000e-002) (19, 1.06306168232948930000e-002) (20, 1.94785893004922300000e-001) (21, -8.36054666579583020000e-002) (22, 1.80485875911801310000e-002) (23, -4.45673801387454840000e-002) (24, -1.01269198973006530000e-003) (21, 5.30583537378662910000e-002) (22, -1.89570281946215070000e-002) (23, 9.31889695702340510000e-002) (24, 6.83903852163313540000e-002) (21, 1.08173100652890000000e-001) (22, 9.17790574398497230000e-002) (23, -6.52888159943939420000e-002) (24, 1.67241246808190950000e-002) (21, 6.20061077774482150000e-002) (22, -1.89936492889172040000e-002) (23, -2.69587372982312630000e-002) (24, 1.09125249104578120000e-001) (25, 4.11256830049408830000e-001) (26, 3.56007805788634220000e-001) (27, 3.91060296545332030000e-001) (28, 3.79439202622164240000e-001) (29, 5.29298823995871580000e-001) 
